digraph Tree {
node [shape=box, style="filled, rounded", color="black", fontname="helvetica"] ;
edge [fontname="helvetica"] ;
0 [label=<petal Width &le; 0.8<br/>entropy = 1.585<br/>samples = 120<br/>value = [40, 40, 40]<br/>class = setosa>, fillcolor="#ffffff"] ;
1 [label=<entropy = 0.0<br/>samples = 40<br/>value = [40, 0, 0]<br/>class = setosa>, fillcolor="#e58139"] ;
0 -> 1 [labeldistance=2.5, labelangle=45, headlabel="True"] ;
2 [label=<petal Width &le; 1.55<br/>entropy = 1.0<br/>samples = 80<br/>value = [0, 40, 40]<br/>class = versicolor>, fillcolor="#ffffff"] ;
0 -> 2 [labeldistance=2.5, labelangle=-45, headlabel="False"] ;
3 [label=<petal Length &le; 4.95<br/>entropy = 0.176<br/>samples = 38<br/>value = [0, 37, 1]<br/>class = versicolor>, fillcolor="#3ee684"] ;
2 -> 3 ;
4 [label=<entropy = 0.0<br/>samples = 37<br/>value = [0, 37, 0]<br/>class = versicolor>, fillcolor="#39e581"] ;
3 -> 4 ;
5 [label=<entropy = 0.0<br/>samples = 1<br/>value = [0, 0, 1]<br/>class = virginica>, fillcolor="#8139e5"] ;
3 -> 5 ;
6 [label=<petal Width &le; 1.85<br/>entropy = 0.371<br/>samples = 42<br/>value = [0, 3, 39]<br/>class = virginica>, fillcolor="#8b48e7"] ;
2 -> 6 ;
7 [label=<petal Length &le; 5.3<br/>entropy = 0.811<br/>samples = 12<br/>value = [0, 3, 9]<br/>class = virginica>, fillcolor="#ab7bee"] ;
6 -> 7 ;
8 [label=<petal Length &le; 4.95<br/>entropy = 0.985<br/>samples = 7<br/>value = [0, 3, 4]<br/>class = virginica>, fillcolor="#e0cef8"] ;
7 -> 8 ;
9 [label=<Sepal Width &le; 3.1<br/>entropy = 0.722<br/>samples = 5<br/>value = [0, 1, 4]<br/>class = virginica>, fillcolor="#a06aec"] ;
8 -> 9 ;
10 [label=<entropy = 0.0<br/>samples = 4<br/>value = [0, 0, 4]<br/>class = virginica>, fillcolor="#8139e5"] ;
9 -> 10 ;
11 [label=<entropy = 0.0<br/>samples = 1<br/>value = [0, 1, 0]<br/>class = versicolor>, fillcolor="#39e581"] ;
9 -> 11 ;
12 [label=<entropy = 0.0<br/>samples = 2<br/>value = [0, 2, 0]<br/>class = versicolor>, fillcolor="#39e581"] ;
8 -> 12 ;
13 [label=<entropy = 0.0<br/>samples = 5<br/>value = [0, 0, 5]<br/>class = virginica>, fillcolor="#8139e5"] ;
7 -> 13 ;
14 [label=<entropy = 0.0<br/>samples = 30<br/>value = [0, 0, 30]<br/>class = virginica>, fillcolor="#8139e5"] ;
6 -> 14 ;
}